digraph Tree {
node [shape=box] ;
<<<<<<< HEAD
0 [label="X[11] <= 0.5\ngini = 0.445\nsamples = 19515\nvalue = [12994, 6521]"] ;
1 [label="X[0] <= 2012.5\ngini = 0.482\nsamples = 12350\nvalue = [7354, 4996]"] ;
0 -> 1 [labeldistance=2.5, labelangle=45, headlabel="True"] ;
2 [label="X[80] <= 0.5\ngini = 0.455\nsamples = 5413\nvalue = [3521, 1892]"] ;
1 -> 2 ;
3 [label="X[72] <= 0.5\ngini = 0.207\nsamples = 495\nvalue = [437, 58]"] ;
2 -> 3 ;
4 [label="gini = 0.488\nsamples = 19\nvalue = [11, 8]"] ;
3 -> 4 ;
5 [label="gini = 0.188\nsamples = 476\nvalue = [426, 50]"] ;
3 -> 5 ;
6 [label="X[5] <= 0.5\ngini = 0.468\nsamples = 4918\nvalue = [3084, 1834]"] ;
2 -> 6 ;
7 [label="gini = 0.454\nsamples = 3487\nvalue = [2275, 1212]"] ;
6 -> 7 ;
8 [label="gini = 0.491\nsamples = 1431\nvalue = [809, 622]"] ;
6 -> 8 ;
9 [label="X[43] <= 0.5\ngini = 0.494\nsamples = 6937\nvalue = [3833, 3104]"] ;
1 -> 9 ;
10 [label="X[27] <= 0.5\ngini = 0.498\nsamples = 5662\nvalue = [3022, 2640]"] ;
9 -> 10 ;
11 [label="gini = 0.495\nsamples = 4090\nvalue = [2251, 1839]"] ;
10 -> 11 ;
12 [label="gini = 0.5\nsamples = 1572\nvalue = [771, 801]"] ;
10 -> 12 ;
13 [label="X[72] <= 0.5\ngini = 0.463\nsamples = 1275\nvalue = [811, 464]"] ;
9 -> 13 ;
14 [label="gini = 0.5\nsamples = 307\nvalue = [155, 152]"] ;
13 -> 14 ;
15 [label="gini = 0.437\nsamples = 968\nvalue = [656, 312]"] ;
13 -> 15 ;
16 [label="X[0] <= 2014.5\ngini = 0.335\nsamples = 7165\nvalue = [5640, 1525]"] ;
0 -> 16 [labeldistance=2.5, labelangle=-45, headlabel="False"] ;
17 [label="X[25] <= 0.5\ngini = 0.352\nsamples = 6338\nvalue = [4894, 1444]"] ;
16 -> 17 ;
18 [label="X[70] <= 0.5\ngini = 0.322\nsamples = 4338\nvalue = [3462, 876]"] ;
17 -> 18 ;
19 [label="gini = 0.248\nsamples = 1135\nvalue = [970, 165]"] ;
18 -> 19 ;
20 [label="gini = 0.345\nsamples = 3203\nvalue = [2492, 711]"] ;
18 -> 20 ;
21 [label="X[70] <= 0.5\ngini = 0.407\nsamples = 2000\nvalue = [1432, 568]"] ;
17 -> 21 ;
22 [label="gini = 0.354\nsamples = 510\nvalue = [393, 117]"] ;
21 -> 22 ;
23 [label="gini = 0.422\nsamples = 1490\nvalue = [1039, 451]"] ;
21 -> 23 ;
24 [label="X[80] <= 0.5\ngini = 0.177\nsamples = 827\nvalue = [746, 81]"] ;
16 -> 24 ;
25 [label="X[13] <= 0.5\ngini = 0.073\nsamples = 315\nvalue = [303, 12]"] ;
24 -> 25 ;
26 [label="gini = 0.063\nsamples = 308\nvalue = [298, 10]"] ;
25 -> 26 ;
27 [label="gini = 0.408\nsamples = 7\nvalue = [5, 2]"] ;
25 -> 27 ;
28 [label="X[59] <= 0.5\ngini = 0.233\nsamples = 512\nvalue = [443, 69]"] ;
24 -> 28 ;
29 [label="gini = 0.231\nsamples = 511\nvalue = [443, 68]"] ;
28 -> 29 ;
30 [label="gini = 0.0\nsamples = 1\nvalue = [0, 1]"] ;
=======
0 [label="X[11] <= 0.5\ngini = 0.445\nsamples = 19515\nvalue = [12990, 6525]"] ;
1 [label="X[0] <= 2012.5\ngini = 0.481\nsamples = 12367\nvalue = [7388, 4979]"] ;
0 -> 1 [labeldistance=2.5, labelangle=45, headlabel="True"] ;
2 [label="X[80] <= 0.5\ngini = 0.455\nsamples = 5421\nvalue = [3527, 1894]"] ;
1 -> 2 ;
3 [label="X[9] <= 0.5\ngini = 0.209\nsamples = 498\nvalue = [439, 59]"] ;
2 -> 3 ;
4 [label="gini = 0.257\nsamples = 377\nvalue = [320, 57]"] ;
3 -> 4 ;
5 [label="gini = 0.033\nsamples = 121\nvalue = [119, 2]"] ;
3 -> 5 ;
6 [label="X[72] <= 0.5\ngini = 0.468\nsamples = 4923\nvalue = [3088, 1835]"] ;
2 -> 6 ;
7 [label="gini = 0.493\nsamples = 234\nvalue = [103, 131]"] ;
6 -> 7 ;
8 [label="gini = 0.463\nsamples = 4689\nvalue = [2985, 1704]"] ;
6 -> 8 ;
9 [label="X[43] <= 0.5\ngini = 0.494\nsamples = 6946\nvalue = [3861, 3085]"] ;
1 -> 9 ;
10 [label="X[27] <= 0.5\ngini = 0.497\nsamples = 5662\nvalue = [3053, 2609]"] ;
9 -> 10 ;
11 [label="gini = 0.494\nsamples = 4101\nvalue = [2282, 1819]"] ;
10 -> 11 ;
12 [label="gini = 0.5\nsamples = 1561\nvalue = [771, 790]"] ;
10 -> 12 ;
13 [label="X[72] <= 0.5\ngini = 0.467\nsamples = 1284\nvalue = [808, 476]"] ;
9 -> 13 ;
14 [label="gini = 0.5\nsamples = 307\nvalue = [153, 154]"] ;
13 -> 14 ;
15 [label="gini = 0.442\nsamples = 977\nvalue = [655, 322]"] ;
13 -> 15 ;
16 [label="X[0] <= 2014.5\ngini = 0.339\nsamples = 7148\nvalue = [5602, 1546]"] ;
0 -> 16 [labeldistance=2.5, labelangle=-45, headlabel="False"] ;
17 [label="X[70] <= 0.5\ngini = 0.356\nsamples = 6299\nvalue = [4840, 1459]"] ;
16 -> 17 ;
18 [label="X[61] <= 0.5\ngini = 0.283\nsamples = 1644\nvalue = [1364, 280]"] ;
17 -> 18 ;
19 [label="gini = 0.257\nsamples = 1485\nvalue = [1260, 225]"] ;
18 -> 19 ;
20 [label="gini = 0.453\nsamples = 159\nvalue = [104, 55]"] ;
18 -> 20 ;
21 [label="X[61] <= 0.5\ngini = 0.378\nsamples = 4655\nvalue = [3476, 1179]"] ;
17 -> 21 ;
22 [label="gini = 0.387\nsamples = 4407\nvalue = [3251, 1156]"] ;
21 -> 22 ;
23 [label="gini = 0.168\nsamples = 248\nvalue = [225, 23]"] ;
21 -> 23 ;
24 [label="X[79] <= 0.5\ngini = 0.184\nsamples = 849\nvalue = [762, 87]"] ;
16 -> 24 ;
25 [label="X[59] <= 0.5\ngini = 0.229\nsamples = 531\nvalue = [461, 70]"] ;
24 -> 25 ;
26 [label="gini = 0.226\nsamples = 530\nvalue = [461, 69]"] ;
25 -> 26 ;
27 [label="gini = 0.0\nsamples = 1\nvalue = [0, 1]"] ;
25 -> 27 ;
28 [label="X[41] <= 0.5\ngini = 0.101\nsamples = 318\nvalue = [301, 17]"] ;
24 -> 28 ;
29 [label="gini = 0.055\nsamples = 248\nvalue = [241, 7]"] ;
28 -> 29 ;
30 [label="gini = 0.245\nsamples = 70\nvalue = [60, 10]"] ;
>>>>>>> f5713fd586467d9311c53b6237aa03df160c54d2
28 -> 30 ;
}